#pragma once
#include <cstdarg>
namespace Eloquent {
    namespace ML {
        namespace Port {
            class RandomForest {
                public:
                    /**
                    * Predict class for features vector
                    */
                    int predict(double *x) {
                        uint8_t votes[13] = { 0 };
                        // tree #1
                        if (x[21] <= 0.48993898928165436) {
                            if (x[30] <= 0.679443359375) {
                                if (x[0] <= 1.0050008296966553) {
                                    if (x[26] <= 0.9019283652305603) {
                                        if (x[14] <= -0.3880615085363388) {
                                            if (x[19] <= 0.3416748344898224) {
                                                if (x[3] <= 0.8345821797847748) {
                                                    votes[3] += 1;
                                                }

                                                else {
                                                    if (x[22] <= 0.049133775755763054) {
                                                        if (x[24] <= 1.058432400226593) {
                                                            votes[7] += 1;
                                                        }

                                                        else {
                                                            if (x[21] <= 0.05942830070853233) {
                                                                votes[5] += 1;
                                                            }

                                                            else {
                                                                votes[2] += 1;
                                                            }
                                                        }
                                                    }

                                                    else {
                                                        if (x[23] <= 0.23771104589104652) {
                                                            votes[5] += 1;
                                                        }

                                                        else {
                                                            votes[7] += 1;
                                                        }
                                                    }
                                                }
                                            }

                                            else {
                                                if (x[6] <= 0.17374315857887268) {
                                                    if (x[24] <= 1.0940491557121277) {
                                                        votes[5] += 1;
                                                    }

                                                    else {
                                                        if (x[21] <= 0.09433302655816078) {
                                                            votes[5] += 1;
                                                        }

                                                        else {
                                                            votes[6] += 1;
                                                        }
                                                    }
                                                }

                                                else {
                                                    if (x[22] <= 0.06849928386509418) {
                                                        votes[2] += 1;
                                                    }

                                                    else {
                                                        votes[6] += 1;
                                                    }
                                                }
                                            }
                                        }

                                        else {
                                            if (x[0] <= 0.4538940489292145) {
                                                if (x[15] <= 0.7559814453125) {
                                                    votes[12] += 1;
                                                }

                                                else {
                                                    votes[8] += 1;
                                                }
                                            }

                                            else {
                                                if (x[20] <= 0.39892578125) {
                                                    if (x[11] <= 0.3110962137579918) {
                                                        votes[10] += 1;
                                                    }

                                                    else {
                                                        votes[11] += 1;
                                                    }
                                                }

                                                else {
                                                    if (x[5] <= 0.6361169815063477) {
                                                        votes[9] += 1;
                                                    }

                                                    else {
                                                        votes[8] += 1;
                                                    }
                                                }
                                            }
                                        }
                                    }

                                    else {
                                        if (x[23] <= 0.15344666689634323) {
                                            if (x[17] <= -0.0235595703125) {
                                                votes[3] += 1;
                                            }

                                            else {
                                                votes[12] += 1;
                                            }
                                        }

                                        else {
                                            votes[4] += 1;
                                        }
                                    }
                                }

                                else {
                                    if (x[6] <= 0.050051480531692505) {
                                        votes[10] += 1;
                                    }

                                    else {
                                        if (x[11] <= -0.2178955078125) {
                                            if (x[1] <= -0.07019653730094433) {
                                                if (x[5] <= 0.30540749430656433) {
                                                    votes[6] += 1;
                                                }

                                                else {
                                                    if (x[19] <= 0.4709473103284836) {
                                                        votes[2] += 1;
                                                    }

                                                    else {
                                                        votes[0] += 1;
                                                    }
                                                }
                                            }

                                            else {
                                                votes[5] += 1;
                                            }
                                        }

                                        else {
                                            votes[0] += 1;
                                        }
                                    }
                                }
                            }

                            else {
                                if (x[14] <= -1.0927734375) {
                                    votes[4] += 1;
                                }

                                else {
                                    if (x[6] <= 0.24211624264717102) {
                                        votes[7] += 1;
                                    }

                                    else {
                                        votes[8] += 1;
                                    }
                                }
                            }
                        }

                        else {
                            votes[1] += 1;
                        }

                        // tree #2
                        if (x[26] <= 0.9019283652305603) {
                            if (x[8] <= 0.37819741666316986) {
                                if (x[23] <= 0.06777844950556755) {
                                    if (x[17] <= 0.2005615085363388) {
                                        if (x[15] <= 0.8878174722194672) {
                                            if (x[12] <= 0.1385498121380806) {
                                                votes[12] += 1;
                                            }

                                            else {
                                                votes[3] += 1;
                                            }
                                        }

                                        else {
                                            if (x[2] <= -0.21673583984375) {
                                                votes[5] += 1;
                                            }

                                            else {
                                                votes[10] += 1;
                                            }
                                        }
                                    }

                                    else {
                                        if (x[14] <= 0.5728759467601776) {
                                            if (x[3] <= 0.5698886215686798) {
                                                if (x[29] <= 0.046765148639678955) {
                                                    votes[12] += 1;
                                                }

                                                else {
                                                    votes[8] += 1;
                                                }
                                            }

                                            else {
                                                if (x[15] <= 0.98095703125) {
                                                    votes[11] += 1;
                                                }

                                                else {
                                                    votes[10] += 1;
                                                }
                                            }
                                        }

                                        else {
                                            votes[12] += 1;
                                        }
                                    }
                                }

                                else {
                                    if (x[22] <= 0.04243394918739796) {
                                        if (x[14] <= -0.29357909597456455) {
                                            votes[2] += 1;
                                        }

                                        else {
                                            votes[9] += 1;
                                        }
                                    }

                                    else {
                                        if (x[5] <= 0.3237820863723755) {
                                            if (x[4] <= 0.19985415786504745) {
                                                if (x[26] <= 0.20767085999250412) {
                                                    votes[0] += 1;
                                                }

                                                else {
                                                    votes[5] += 1;
                                                }
                                            }

                                            else {
                                                if (x[9] <= 0.9720458984375) {
                                                    votes[9] += 1;
                                                }

                                                else {
                                                    votes[6] += 1;
                                                }
                                            }
                                        }

                                        else {
                                            if (x[23] <= 0.17732733488082886) {
                                                if (x[3] <= 0.925689697265625) {
                                                    if (x[9] <= 0.5733642429113388) {
                                                        if (x[21] <= 0.09878432005643845) {
                                                            votes[12] += 1;
                                                        }

                                                        else {
                                                            votes[8] += 1;
                                                        }
                                                    }

                                                    else {
                                                        if (x[17] <= 0.7532959282398224) {
                                                            votes[11] += 1;
                                                        }

                                                        else {
                                                            votes[9] += 1;
                                                        }
                                                    }
                                                }

                                                else {
                                                    if (x[19] <= 0.2880859375) {
                                                        votes[2] += 1;
                                                    }

                                                    else {
                                                        votes[5] += 1;
                                                    }
                                                }
                                            }

                                            else {
                                                if (x[6] <= 0.5695457011461258) {
                                                    if (x[26] <= -0.17516344040632248) {
                                                        if (x[3] <= 0.6508241593837738) {
                                                            votes[8] += 1;
                                                        }

                                                        else {
                                                            votes[9] += 1;
                                                        }
                                                    }

                                                    else {
                                                        votes[6] += 1;
                                                    }
                                                }

                                                else {
                                                    votes[1] += 1;
                                                }
                                            }
                                        }
                                    }
                                }
                            }

                            else {
                                if (x[30] <= 0.4401611387729645) {
                                    if (x[18] <= 2.5662841796875) {
                                        votes[6] += 1;
                                    }

                                    else {
                                        if (x[21] <= 0.5315635204315186) {
                                            votes[6] += 1;
                                        }

                                        else {
                                            votes[1] += 1;
                                        }
                                    }
                                }

                                else {
                                    if (x[17] <= 0.8800049126148224) {
                                        votes[7] += 1;
                                    }

                                    else {
                                        votes[1] += 1;
                                    }
                                }
                            }
                        }

                        else {
                            if (x[6] <= 0.15337274223566055) {
                                if (x[0] <= 0.26092326268553734) {
                                    votes[12] += 1;
                                }

                                else {
                                    votes[3] += 1;
                                }
                            }

                            else {
                                votes[4] += 1;
                            }
                        }

                        // tree #3
                        if (x[14] <= -0.2558593899011612) {
                            if (x[8] <= 0.4272882789373398) {
                                if (x[6] <= 0.5695457011461258) {
                                    if (x[21] <= 0.20717753469944) {
                                        if (x[22] <= 0.04897128976881504) {
                                            if (x[0] <= 0.8889099359512329) {
                                                if (x[24] <= 1.0882548689842224) {
                                                    votes[4] += 1;
                                                }

                                                else {
                                                    votes[3] += 1;
                                                }
                                            }

                                            else {
                                                if (x[8] <= 0.356230229139328) {
                                                    votes[2] += 1;
                                                }

                                                else {
                                                    votes[7] += 1;
                                                }
                                            }
                                        }

                                        else {
                                            if (x[1] <= -0.04294434003531933) {
                                                if (x[20] <= 1.1763916611671448) {
                                                    if (x[11] <= -0.2849121391773224) {
                                                        if (x[2] <= -0.5423441529273987) {
                                                            votes[4] += 1;
                                                        }

                                                        else {
                                                            votes[5] += 1;
                                                        }
                                                    }

                                                    else {
                                                        votes[0] += 1;
                                                    }
                                                }

                                                else {
                                                    votes[6] += 1;
                                                }
                                            }

                                            else {
                                                if (x[27] <= -0.4622029811143875) {
                                                    votes[7] += 1;
                                                }

                                                else {
                                                    votes[5] += 1;
                                                }
                                            }
                                        }
                                    }

                                    else {
                                        if (x[14] <= -0.7683106064796448) {
                                            if (x[20] <= 1.3489990234375) {
                                                votes[4] += 1;
                                            }

                                            else {
                                                votes[6] += 1;
                                            }
                                        }

                                        else {
                                            if (x[3] <= 0.9631261229515076) {
                                                votes[9] += 1;
                                            }

                                            else {
                                                votes[0] += 1;
                                            }
                                        }
                                    }
                                }

                                else {
                                    votes[1] += 1;
                                }
                            }

                            else {
                                if (x[18] <= 0.9420165717601776) {
                                    votes[7] += 1;
                                }

                                else {
                                    if (x[30] <= 0.40777587890625) {
                                        if (x[3] <= 1.208253026008606) {
                                            votes[6] += 1;
                                        }

                                        else {
                                            votes[1] += 1;
                                        }
                                    }

                                    else {
                                        votes[4] += 1;
                                    }
                                }
                            }
                        }

                        else {
                            if (x[0] <= 0.9503072500228882) {
                                if (x[17] <= 0.61181640625) {
                                    if (x[3] <= 0.7216146886348724) {
                                        if (x[23] <= 0.06495917309075594) {
                                            votes[12] += 1;
                                        }

                                        else {
                                            votes[8] += 1;
                                        }
                                    }

                                    else {
                                        votes[11] += 1;
                                    }
                                }

                                else {
                                    if (x[15] <= 0.685791015625) {
                                        if (x[8] <= 0.0018402960849925876) {
                                            votes[2] += 1;
                                        }

                                        else {
                                            votes[12] += 1;
                                        }
                                    }

                                    else {
                                        if (x[11] <= 0.6004638969898224) {
                                            votes[9] += 1;
                                        }

                                        else {
                                            votes[8] += 1;
                                        }
                                    }
                                }
                            }

                            else {
                                votes[10] += 1;
                            }
                        }

                        // tree #4
                        if (x[21] <= 0.3613746464252472) {
                            if (x[23] <= 0.3728433698415756) {
                                if (x[18] <= 0.2556152194738388) {
                                    if (x[5] <= 0.18474771082401276) {
                                        if (x[26] <= 0.6411232948303223) {
                                            if (x[10] <= -0.5959472209215164) {
                                                votes[12] += 1;
                                            }

                                            else {
                                                votes[10] += 1;
                                            }
                                        }

                                        else {
                                            votes[12] += 1;
                                        }
                                    }

                                    else {
                                        if (x[3] <= 0.7821052372455597) {
                                            if (x[14] <= -0.5507813096046448) {
                                                votes[3] += 1;
                                            }

                                            else {
                                                votes[12] += 1;
                                            }
                                        }

                                        else {
                                            if (x[5] <= 0.319877564907074) {
                                                votes[10] += 1;
                                            }

                                            else {
                                                votes[11] += 1;
                                            }
                                        }
                                    }
                                }

                                else {
                                    if (x[0] <= 0.869183361530304) {
                                        if (x[2] <= -0.1681294795125723) {
                                            if (x[20] <= 1.4327393174171448) {
                                                if (x[15] <= 0.8837890923023224) {
                                                    votes[3] += 1;
                                                }

                                                else {
                                                    votes[4] += 1;
                                                }
                                            }

                                            else {
                                                votes[6] += 1;
                                            }
                                        }

                                        else {
                                            if (x[6] <= 0.2675490230321884) {
                                                if (x[4] <= 0.34058162569999695) {
                                                    if (x[20] <= 0.4079590365290642) {
                                                        votes[12] += 1;
                                                    }

                                                    else {
                                                        votes[8] += 1;
                                                    }
                                                }

                                                else {
                                                    if (x[24] <= 0.9809958338737488) {
                                                        votes[12] += 1;
                                                    }

                                                    else {
                                                        votes[8] += 1;
                                                    }
                                                }
                                            }

                                            else {
                                                votes[9] += 1;
                                            }
                                        }
                                    }

                                    else {
                                        if (x[7] <= 0.06495241820812225) {
                                            if (x[18] <= 0.3146973252296448) {
                                                if (x[17] <= 0.20397954434156418) {
                                                    votes[5] += 1;
                                                }

                                                else {
                                                    votes[7] += 1;
                                                }
                                            }

                                            else {
                                                votes[2] += 1;
                                            }
                                        }

                                        else {
                                            if (x[13] <= -0.5681152045726776) {
                                                if (x[11] <= -0.07415774092078209) {
                                                    votes[6] += 1;
                                                }

                                                else {
                                                    votes[0] += 1;
                                                }
                                            }

                                            else {
                                                if (x[2] <= -0.2789062559604645) {
                                                    if (x[17] <= 0.1295166052877903) {
                                                        if (x[14] <= -0.6218261420726776) {
                                                            votes[5] += 1;
                                                        }

                                                        else {
                                                            votes[2] += 1;
                                                        }
                                                    }

                                                    else {
                                                        if (x[17] <= 0.1645507887005806) {
                                                            votes[6] += 1;
                                                        }

                                                        else {
                                                            votes[5] += 1;
                                                        }
                                                    }
                                                }

                                                else {
                                                    if (x[7] <= 0.08908254280686378) {
                                                        if (x[17] <= 0.7103271782398224) {
                                                            votes[7] += 1;
                                                        }

                                                        else {
                                                            votes[9] += 1;
                                                        }
                                                    }

                                                    else {
                                                        votes[0] += 1;
                                                    }
                                                }
                                            }
                                        }
                                    }
                                }
                            }

                            else {
                                if (x[11] <= -0.2611694633960724) {
                                    if (x[27] <= -0.7425740659236908) {
                                        votes[7] += 1;
                                    }

                                    else {
                                        votes[4] += 1;
                                    }
                                }

                                else {
                                    if (x[27] <= -0.9461408257484436) {
                                        votes[12] += 1;
                                    }

                                    else {
                                        if (x[14] <= -1.609130859375) {
                                            votes[6] += 1;
                                        }

                                        else {
                                            votes[7] += 1;
                                        }
                                    }
                                }
                            }
                        }

                        else {
                            votes[1] += 1;
                        }

                        // tree #5
                        if (x[14] <= -0.2821045517921448) {
                            if (x[23] <= 0.392935186624527) {
                                if (x[0] <= 0.869183361530304) {
                                    if (x[26] <= 0.8282191157341003) {
                                        if (x[4] <= 0.19555901736021042) {
                                            votes[3] += 1;
                                        }

                                        else {
                                            if (x[2] <= -0.15364380180835724) {
                                                votes[6] += 1;
                                            }

                                            else {
                                                if (x[15] <= 1.2238770127296448) {
                                                    votes[9] += 1;
                                                }

                                                else {
                                                    votes[7] += 1;
                                                }
                                            }
                                        }
                                    }

                                    else {
                                        if (x[6] <= 0.13810869306325912) {
                                            votes[3] += 1;
                                        }

                                        else {
                                            votes[4] += 1;
                                        }
                                    }
                                }

                                else {
                                    if (x[3] <= 1.174441158771515) {
                                        if (x[22] <= 0.043896758928895) {
                                            if (x[2] <= -0.20594075322151184) {
                                                votes[2] += 1;
                                            }

                                            else {
                                                votes[7] += 1;
                                            }
                                        }

                                        else {
                                            if (x[8] <= 0.23216503858566284) {
                                                if (x[6] <= 0.13491517305374146) {
                                                    votes[5] += 1;
                                                }

                                                else {
                                                    if (x[0] <= 1.0069010257720947) {
                                                        if (x[19] <= 0.3040771782398224) {
                                                            votes[2] += 1;
                                                        }

                                                        else {
                                                            votes[5] += 1;
                                                        }
                                                    }

                                                    else {
                                                        votes[0] += 1;
                                                    }
                                                }
                                            }

                                            else {
                                                if (x[14] <= -0.9599610269069672) {
                                                    votes[6] += 1;
                                                }

                                                else {
                                                    votes[7] += 1;
                                                }
                                            }
                                        }
                                    }

                                    else {
                                        votes[1] += 1;
                                    }
                                }
                            }

                            else {
                                if (x[20] <= 2.037109375) {
                                    votes[7] += 1;
                                }

                                else {
                                    if (x[6] <= 0.44155253469944) {
                                        votes[6] += 1;
                                    }

                                    else {
                                        votes[1] += 1;
                                    }
                                }
                            }
                        }

                        else {
                            if (x[0] <= 0.95818892121315) {
                                if (x[12] <= 0.5893554985523224) {
                                    if (x[9] <= 0.6048584282398224) {
                                        if (x[28] <= -0.325439453125) {
                                            votes[8] += 1;
                                        }

                                        else {
                                            if (x[18] <= 0.6563720405101776) {
                                                if (x[14] <= 0.9252929389476776) {
                                                    votes[12] += 1;
                                                }

                                                else {
                                                    votes[2] += 1;
                                                }
                                            }

                                            else {
                                                votes[8] += 1;
                                            }
                                        }
                                    }

                                    else {
                                        votes[9] += 1;
                                    }
                                }

                                else {
                                    votes[11] += 1;
                                }
                            }

                            else {
                                votes[10] += 1;
                            }
                        }

                        // tree #6
                        if (x[30] <= 0.6675170958042145) {
                            if (x[8] <= 0.08425594493746758) {
                                if (x[4] <= 0.05658098869025707) {
                                    if (x[0] <= 0.9503072500228882) {
                                        if (x[2] <= 0.7235595881938934) {
                                            votes[11] += 1;
                                        }

                                        else {
                                            votes[12] += 1;
                                        }
                                    }

                                    else {
                                        votes[10] += 1;
                                    }
                                }

                                else {
                                    if (x[12] <= 0.2967529743909836) {
                                        votes[12] += 1;
                                    }

                                    else {
                                        if (x[2] <= -0.4462239593267441) {
                                            votes[3] += 1;
                                        }

                                        else {
                                            if (x[2] <= 0.3137614130973816) {
                                                votes[10] += 1;
                                            }

                                            else {
                                                if (x[12] <= 0.5905762016773224) {
                                                    votes[12] += 1;
                                                }

                                                else {
                                                    votes[11] += 1;
                                                }
                                            }
                                        }
                                    }
                                }
                            }

                            else {
                                if (x[15] <= 1.130126953125) {
                                    if (x[26] <= 0.8407250940799713) {
                                        if (x[28] <= -0.03704835008829832) {
                                            if (x[21] <= 0.05901109427213669) {
                                                votes[5] += 1;
                                            }

                                            else {
                                                votes[8] += 1;
                                            }
                                        }

                                        else {
                                            if (x[12] <= 0.3795166090130806) {
                                                votes[9] += 1;
                                            }

                                            else {
                                                if (x[8] <= 0.18226556479930878) {
                                                    votes[5] += 1;
                                                }

                                                else {
                                                    votes[2] += 1;
                                                }
                                            }
                                        }
                                    }

                                    else {
                                        if (x[3] <= 0.36264532804489136) {
                                            votes[12] += 1;
                                        }

                                        else {
                                            votes[4] += 1;
                                        }
                                    }
                                }

                                else {
                                    if (x[19] <= 0.30859375) {
                                        votes[2] += 1;
                                    }

                                    else {
                                        if (x[18] <= 2.507080078125) {
                                            if (x[8] <= 0.23514897376298904) {
                                                if (x[7] <= 0.12127086892724037) {
                                                    if (x[7] <= 0.06226926110684872) {
                                                        votes[2] += 1;
                                                    }

                                                    else {
                                                        if (x[20] <= 0.67919921875) {
                                                            if (x[23] <= 0.11754964664578438) {
                                                                votes[5] += 1;
                                                            }

                                                            else {
                                                                votes[0] += 1;
                                                            }
                                                        }

                                                        else {
                                                            votes[5] += 1;
                                                        }
                                                    }
                                                }

                                                else {
                                                    if (x[21] <= 0.09156325459480286) {
                                                        if (x[22] <= 0.09813768416643143) {
                                                            votes[6] += 1;
                                                        }

                                                        else {
                                                            votes[5] += 1;
                                                        }
                                                    }

                                                    else {
                                                        votes[0] += 1;
                                                    }
                                                }
                                            }

                                            else {
                                                votes[6] += 1;
                                            }
                                        }

                                        else {
                                            if (x[6] <= 0.5912977457046509) {
                                                votes[6] += 1;
                                            }

                                            else {
                                                votes[1] += 1;
                                            }
                                        }
                                    }
                                }
                            }
                        }

                        else {
                            if (x[0] <= 0.82489013671875) {
                                if (x[17] <= 0.44812016375362873) {
                                    votes[4] += 1;
                                }

                                else {
                                    if (x[11] <= 0.2723999237641692) {
                                        votes[12] += 1;
                                    }

                                    else {
                                        if (x[7] <= 0.13862712681293488) {
                                            votes[7] += 1;
                                        }

                                        else {
                                            if (x[6] <= 0.3775656670331955) {
                                                votes[8] += 1;
                                            }

                                            else {
                                                votes[1] += 1;
                                            }
                                        }
                                    }
                                }
                            }

                            else {
                                if (x[28] <= 0.35826417058706284) {
                                    votes[7] += 1;
                                }

                                else {
                                    votes[4] += 1;
                                }
                            }
                        }

                        // tree #7
                        if (x[6] <= 0.051933325827121735) {
                            if (x[0] <= 0.9503072500228882) {
                                if (x[12] <= 0.6185302883386612) {
                                    if (x[11] <= -0.5609741285443306) {
                                        votes[3] += 1;
                                    }

                                    else {
                                        if (x[21] <= 0.001654735446209088) {
                                            votes[2] += 1;
                                        }

                                        else {
                                            votes[12] += 1;
                                        }
                                    }
                                }

                                else {
                                    votes[11] += 1;
                                }
                            }

                            else {
                                votes[10] += 1;
                            }
                        }

                        else {
                            if (x[8] <= 0.43640267848968506) {
                                if (x[24] <= 1.160836398601532) {
                                    if (x[23] <= 0.27115748822689056) {
                                        if (x[2] <= -0.2629638761281967) {
                                            if (x[22] <= 0.049133775755763054) {
                                                if (x[11] <= -0.6337890923023224) {
                                                    if (x[15] <= 0.8942871391773224) {
                                                        votes[3] += 1;
                                                    }

                                                    else {
                                                        votes[4] += 1;
                                                    }
                                                }

                                                else {
                                                    if (x[23] <= 0.09599243104457855) {
                                                        votes[5] += 1;
                                                    }

                                                    else {
                                                        votes[2] += 1;
                                                    }
                                                }
                                            }

                                            else {
                                                if (x[6] <= 0.186070054769516) {
                                                    if (x[7] <= 0.15355324745178223) {
                                                        votes[5] += 1;
                                                    }

                                                    else {
                                                        votes[6] += 1;
                                                    }
                                                }

                                                else {
                                                    if (x[18] <= 1.0952149331569672) {
                                                        if (x[21] <= 0.17456041276454926) {
                                                            votes[2] += 1;
                                                        }

                                                        else {
                                                            votes[4] += 1;
                                                        }
                                                    }

                                                    else {
                                                        votes[6] += 1;
                                                    }
                                                }
                                            }
                                        }

                                        else {
                                            if (x[12] <= 0.364257775247097) {
                                                if (x[20] <= 0.5955811142921448) {
                                                    votes[12] += 1;
                                                }

                                                else {
                                                    if (x[9] <= 0.39910888671875) {
                                                        if (x[18] <= 0.5079345703125) {
                                                            votes[12] += 1;
                                                        }

                                                        else {
                                                            votes[8] += 1;
                                                        }
                                                    }

                                                    else {
                                                        if (x[2] <= -0.03636678121984005) {
                                                            votes[6] += 1;
                                                        }

                                                        else {
                                                            if (x[12] <= 0.1884765401482582) {
                                                                votes[9] += 1;
                                                            }

                                                            else {
                                                                if (x[27] <= -0.4394483417272568) {
                                                                    votes[9] += 1;
                                                                }

                                                                else {
                                                                    votes[8] += 1;
                                                                }
                                                            }
                                                        }
                                                    }
                                                }
                                            }

                                            else {
                                                if (x[27] <= 0.4624171406030655) {
                                                    votes[0] += 1;
                                                }

                                                else {
                                                    votes[6] += 1;
                                                }
                                            }
                                        }
                                    }

                                    else {
                                        if (x[11] <= -0.350830078125) {
                                            if (x[29] <= -0.0751953162252903) {
                                                votes[6] += 1;
                                            }

                                            else {
                                                if (x[3] <= 0.9155736267566681) {
                                                    votes[4] += 1;
                                                }

                                                else {
                                                    votes[2] += 1;
                                                }
                                            }
                                        }

                                        else {
                                            if (x[6] <= 0.1322142481803894) {
                                                votes[7] += 1;
                                            }

                                            else {
                                                if (x[16] <= 0.205810546875) {
                                                    if (x[17] <= 0.4674072489142418) {
                                                        if (x[21] <= 0.18020019307732582) {
                                                            votes[2] += 1;
                                                        }

                                                        else {
                                                            votes[4] += 1;
                                                        }
                                                    }

                                                    else {
                                                        votes[9] += 1;
                                                    }
                                                }

                                                else {
                                                    votes[6] += 1;
                                                }
                                            }
                                        }
                                    }
                                }

                                else {
                                    votes[1] += 1;
                                }
                            }

                            else {
                                if (x[6] <= 0.22409358620643616) {
                                    votes[7] += 1;
                                }

                                else {
                                    if (x[24] <= 1.2436208128929138) {
                                        if (x[8] <= 0.5798102915287018) {
                                            if (x[14] <= -1.7364502549171448) {
                                                votes[6] += 1;
                                            }

                                            else {
                                                votes[4] += 1;
                                            }
                                        }

                                        else {
                                            votes[1] += 1;
                                        }
                                    }

                                    else {
                                        votes[1] += 1;
                                    }
                                }
                            }
                        }

                        // tree #8
                        if (x[30] <= 0.6675170958042145) {
                            if (x[26] <= 0.9019283652305603) {
                                if (x[12] <= 0.910400390625) {
                                    if (x[21] <= 0.4937082380056381) {
                                        if (x[3] <= 1.0268501043319702) {
                                            if (x[15] <= 1.0568848252296448) {
                                                if (x[0] <= 0.8180094659328461) {
                                                    if (x[24] <= 1.0562800168991089) {
                                                        if (x[8] <= 0.08425594493746758) {
                                                            if (x[6] <= 0.0018537312862463295) {
                                                                votes[2] += 1;
                                                            }

                                                            else {
                                                                votes[12] += 1;
                                                            }
                                                        }

                                                        else {
                                                            if (x[3] <= 0.627740353345871) {
                                                                if (x[13] <= -0.8732910454273224) {
                                                                    votes[12] += 1;
                                                                }

                                                                else {
                                                                    votes[8] += 1;
                                                                }
                                                            }

                                                            else {
                                                                votes[9] += 1;
                                                            }
                                                        }
                                                    }

                                                    else {
                                                        votes[3] += 1;
                                                    }
                                                }

                                                else {
                                                    if (x[23] <= 0.13980503007769585) {
                                                        votes[11] += 1;
                                                    }

                                                    else {
                                                        if (x[3] <= 0.8998146951198578) {
                                                            votes[2] += 1;
                                                        }

                                                        else {
                                                            votes[9] += 1;
                                                        }
                                                    }
                                                }
                                            }

                                            else {
                                                if (x[21] <= 0.10503756627440453) {
                                                    if (x[22] <= 0.029605921357870102) {
                                                        if (x[6] <= 0.09507405012845993) {
                                                            votes[7] += 1;
                                                        }

                                                        else {
                                                            votes[2] += 1;
                                                        }
                                                    }

                                                    else {
                                                        votes[5] += 1;
                                                    }
                                                }

                                                else {
                                                    if (x[20] <= 1.2161865234375) {
                                                        if (x[4] <= 0.07729718834161758) {
                                                            votes[9] += 1;
                                                        }

                                                        else {
                                                            if (x[22] <= 0.09352959133684635) {
                                                                votes[2] += 1;
                                                            }

                                                            else {
                                                                if (x[6] <= 0.2278728410601616) {
                                                                    votes[0] += 1;
                                                                }

                                                                else {
                                                                    votes[9] += 1;
                                                                }
                                                            }
                                                        }
                                                    }

                                                    else {
                                                        votes[6] += 1;
                                                    }
                                                }
                                            }
                                        }

                                        else {
                                            if (x[2] <= -0.2585205137729645) {
                                                if (x[1] <= -0.11891479417681694) {
                                                    votes[6] += 1;
                                                }

                                                else {
                                                    votes[2] += 1;
                                                }
                                            }

                                            else {
                                                if (x[12] <= 0.2600097768008709) {
                                                    votes[6] += 1;
                                                }

                                                else {
                                                    votes[0] += 1;
                                                }
                                            }
                                        }
                                    }

                                    else {
                                        votes[1] += 1;
                                    }
                                }

                                else {
                                    votes[10] += 1;
                                }
                            }

                            else {
                                if (x[23] <= 0.1120983250439167) {
                                    if (x[1] <= -0.5668111369013786) {
                                        votes[12] += 1;
                                    }

                                    else {
                                        votes[3] += 1;
                                    }
                                }

                                else {
                                    votes[4] += 1;
                                }
                            }
                        }

                        else {
                            if (x[0] <= 0.7872395813465118) {
                                if (x[8] <= 0.2865780144929886) {
                                    votes[8] += 1;
                                }

                                else {
                                    if (x[21] <= 0.1622922718524933) {
                                        votes[12] += 1;
                                    }

                                    else {
                                        votes[4] += 1;
                                    }
                                }
                            }

                            else {
                                votes[7] += 1;
                            }
                        }

                        // tree #9
                        if (x[12] <= 0.9147948920726776) {
                            if (x[24] <= 0.9974848628044128) {
                                if (x[3] <= 0.40275804698467255) {
                                    if (x[20] <= 0.008667027112096548) {
                                        votes[2] += 1;
                                    }

                                    else {
                                        votes[12] += 1;
                                    }
                                }

                                else {
                                    if (x[29] <= -0.031518546398729086) {
                                        votes[9] += 1;
                                    }

                                    else {
                                        votes[8] += 1;
                                    }
                                }
                            }

                            else {
                                if (x[30] <= 0.6675170958042145) {
                                    if (x[15] <= 0.98291015625) {
                                        if (x[24] <= 1.049675166606903) {
                                            votes[11] += 1;
                                        }

                                        else {
                                            votes[3] += 1;
                                        }
                                    }

                                    else {
                                        if (x[19] <= 0.2874755412340164) {
                                            if (x[5] <= 0.601299524307251) {
                                                if (x[17] <= 0.0700683705508709) {
                                                    votes[2] += 1;
                                                }

                                                else {
                                                    if (x[28] <= 0.3029662915505469) {
                                                        if (x[26] <= -0.44581839442253113) {
                                                            votes[10] += 1;
                                                        }

                                                        else {
                                                            votes[7] += 1;
                                                        }
                                                    }

                                                    else {
                                                        votes[9] += 1;
                                                    }
                                                }
                                            }

                                            else {
                                                votes[4] += 1;
                                            }
                                        }

                                        else {
                                            if (x[12] <= 0.3118896484375) {
                                                if (x[17] <= -0.006591802695766091) {
                                                    if (x[12] <= -0.10998531430959702) {
                                                        votes[6] += 1;
                                                    }

                                                    else {
                                                        votes[4] += 1;
                                                    }
                                                }

                                                else {
                                                    if (x[3] <= 1.136123538017273) {
                                                        if (x[24] <= 1.0582570433616638) {
                                                            votes[9] += 1;
                                                        }

                                                        else {
                                                            votes[6] += 1;
                                                        }
                                                    }

                                                    else {
                                                        votes[1] += 1;
                                                    }
                                                }
                                            }

                                            else {
                                                if (x[3] <= 1.0268501043319702) {
                                                    if (x[1] <= -0.10199178382754326) {
                                                        if (x[23] <= 0.14283108711242676) {
                                                            votes[5] += 1;
                                                        }

                                                        else {
                                                            if (x[19] <= 0.7451172024011612) {
                                                                if (x[26] <= 0.38044723123311996) {
                                                                    votes[2] += 1;
                                                                }

                                                                else {
                                                                    votes[4] += 1;
                                                                }
                                                            }

                                                            else {
                                                                votes[6] += 1;
                                                            }
                                                        }
                                                    }

                                                    else {
                                                        if (x[24] <= 1.0461338758468628) {
                                                            votes[0] += 1;
                                                        }

                                                        else {
                                                            votes[5] += 1;
                                                        }
                                                    }
                                                }

                                                else {
                                                    if (x[5] <= 0.3706127852201462) {
                                                        if (x[27] <= 0.4624171406030655) {
                                                            votes[0] += 1;
                                                        }

                                                        else {
                                                            votes[6] += 1;
                                                        }
                                                    }

                                                    else {
                                                        votes[2] += 1;
                                                    }
                                                }
                                            }
                                        }
                                    }
                                }

                                else {
                                    if (x[21] <= 0.18666306883096695) {
                                        votes[7] += 1;
                                    }

                                    else {
                                        if (x[7] <= 0.20253463834524155) {
                                            votes[4] += 1;
                                        }

                                        else {
                                            votes[9] += 1;
                                        }
                                    }
                                }
                            }
                        }

                        else {
                            votes[10] += 1;
                        }

                        // tree #10
                        if (x[30] <= 0.732617199420929) {
                            if (x[0] <= 0.4916788786649704) {
                                if (x[12] <= 0.3278808742761612) {
                                    if (x[2] <= 0.9345133602619171) {
                                        if (x[18] <= 0.61669921875) {
                                            if (x[11] <= -0.6079101637005806) {
                                                votes[3] += 1;
                                            }

                                            else {
                                                votes[12] += 1;
                                            }
                                        }

                                        else {
                                            votes[8] += 1;
                                        }
                                    }

                                    else {
                                        votes[2] += 1;
                                    }
                                }

                                else {
                                    if (x[17] <= -0.0013427138328552246) {
                                        votes[3] += 1;
                                    }

                                    else {
                                        votes[12] += 1;
                                    }
                                }
                            }

                            else {
                                if (x[18] <= 0.2503662779927254) {
                                    if (x[6] <= 0.002318904036656022) {
                                        if (x[15] <= 0.9188232719898224) {
                                            votes[11] += 1;
                                        }

                                        else {
                                            votes[10] += 1;
                                        }
                                    }

                                    else {
                                        if (x[17] <= 0.3676757514476776) {
                                            if (x[4] <= 0.11575712636113167) {
                                                votes[10] += 1;
                                            }

                                            else {
                                                votes[3] += 1;
                                            }
                                        }

                                        else {
                                            votes[11] += 1;
                                        }
                                    }
                                }

                                else {
                                    if (x[24] <= 1.1619956493377686) {
                                        if (x[3] <= 0.873101681470871) {
                                            if (x[10] <= -0.046508798375725746) {
                                                if (x[8] <= 0.1872142180800438) {
                                                    if (x[5] <= 0.7453390955924988) {
                                                        votes[9] += 1;
                                                    }

                                                    else {
                                                        if (x[8] <= 0.12942200526595116) {
                                                            votes[3] += 1;
                                                        }

                                                        else {
                                                            votes[8] += 1;
                                                        }
                                                    }
                                                }

                                                else {
                                                    if (x[2] <= -0.45924071967601776) {
                                                        votes[4] += 1;
                                                    }

                                                    else {
                                                        votes[7] += 1;
                                                    }
                                                }
                                            }

                                            else {
                                                if (x[5] <= 0.7001114785671234) {
                                                    votes[9] += 1;
                                                }

                                                else {
                                                    if (x[30] <= 0.4193115234375) {
                                                        votes[4] += 1;
                                                    }

                                                    else {
                                                        votes[8] += 1;
                                                    }
                                                }
                                            }
                                        }

                                        else {
                                            if (x[3] <= 1.0268501043319702) {
                                                if (x[22] <= 0.04400336369872093) {
                                                    if (x[8] <= 0.34627801179885864) {
                                                        if (x[11] <= 0.0019531100988388062) {
                                                            if (x[23] <= 0.09599243104457855) {
                                                                votes[5] += 1;
                                                            }

                                                            else {
                                                                votes[2] += 1;
                                                            }
                                                        }

                                                        else {
                                                            votes[9] += 1;
                                                        }
                                                    }

                                                    else {
                                                        votes[7] += 1;
                                                    }
                                                }

                                                else {
                                                    if (x[13] <= -0.5458984375) {
                                                        votes[6] += 1;
                                                    }

                                                    else {
                                                        if (x[30] <= 0.44322510063648224) {
                                                            if (x[7] <= 0.14877131581306458) {
                                                                if (x[23] <= 0.21358996629714966) {
                                                                    if (x[22] <= 0.058020494878292084) {
                                                                        if (x[5] <= 0.3785654455423355) {
                                                                            if (x[22] <= 0.05391940288245678) {
                                                                                votes[5] += 1;
                                                                            }

                                                                            else {
                                                                                votes[2] += 1;
                                                                            }
                                                                        }

                                                                        else {
                                                                            votes[5] += 1;
                                                                        }
                                                                    }

                                                                    else {
                                                                        votes[5] += 1;
                                                                    }
                                                                }

                                                                else {
                                                                    votes[6] += 1;
                                                                }
                                                            }

                                                            else {
                                                                votes[6] += 1;
                                                            }
                                                        }

                                                        else {
                                                            votes[7] += 1;
                                                        }
                                                    }
                                                }
                                            }

                                            else {
                                                if (x[2] <= -0.2823140621185303) {
                                                    votes[2] += 1;
                                                }

                                                else {
                                                    if (x[26] <= -0.23495853692293167) {
                                                        votes[10] += 1;
                                                    }

                                                    else {
                                                        votes[0] += 1;
                                                    }
                                                }
                                            }
                                        }
                                    }

                                    else {
                                        if (x[5] <= 0.6582980751991272) {
                                            if (x[14] <= -2.3519287109375) {
                                                votes[6] += 1;
                                            }

                                            else {
                                                votes[1] += 1;
                                            }
                                        }

                                        else {
                                            if (x[26] <= -0.17738135904073715) {
                                                votes[6] += 1;
                                            }

                                            else {
                                                votes[1] += 1;
                                            }
                                        }
                                    }
                                }
                            }
                        }

                        else {
                            if (x[6] <= 0.2282932549715042) {
                                votes[7] += 1;
                            }

                            else {
                                if (x[2] <= -0.003621414303779602) {
                                    votes[4] += 1;
                                }

                                else {
                                    votes[1] += 1;
                                }
                            }
                        }

                        // tree #11
                        if (x[12] <= 0.9393310844898224) {
                            if (x[17] <= -0.005615271162241697) {
                                if (x[3] <= 0.8800972700119019) {
                                    if (x[20] <= 0.4869385212659836) {
                                        if (x[15] <= 0.1483154334127903) {
                                            votes[12] += 1;
                                        }

                                        else {
                                            votes[3] += 1;
                                        }
                                    }

                                    else {
                                        votes[4] += 1;
                                    }
                                }

                                else {
                                    if (x[22] <= 0.04652262106537819) {
                                        if (x[6] <= 0.07226272486150265) {
                                            votes[5] += 1;
                                        }

                                        else {
                                            votes[2] += 1;
                                        }
                                    }

                                    else {
                                        if (x[4] <= 0.22552519291639328) {
                                            if (x[3] <= 1.029835820198059) {
                                                votes[5] += 1;
                                            }

                                            else {
                                                votes[0] += 1;
                                            }
                                        }

                                        else {
                                            votes[6] += 1;
                                        }
                                    }
                                }
                            }

                            else {
                                if (x[23] <= 0.3524583727121353) {
                                    if (x[20] <= 0.357177734375) {
                                        if (x[14] <= 0.5712890923023224) {
                                            if (x[3] <= 0.4686712510883808) {
                                                votes[12] += 1;
                                            }

                                            else {
                                                votes[11] += 1;
                                            }
                                        }

                                        else {
                                            votes[12] += 1;
                                        }
                                    }

                                    else {
                                        if (x[6] <= 0.6237763464450836) {
                                            if (x[5] <= 0.28652895987033844) {
                                                if (x[18] <= 0.5109863877296448) {
                                                    if (x[22] <= 0.05037339869886637) {
                                                        votes[10] += 1;
                                                    }

                                                    else {
                                                        votes[12] += 1;
                                                    }
                                                }

                                                else {
                                                    if (x[28] <= 0.42927245050668716) {
                                                        votes[0] += 1;
                                                    }

                                                    else {
                                                        votes[9] += 1;
                                                    }
                                                }
                                            }

                                            else {
                                                if (x[14] <= -1.25390625) {
                                                    if (x[10] <= 0.005554191768169403) {
                                                        votes[6] += 1;
                                                    }

                                                    else {
                                                        votes[5] += 1;
                                                    }
                                                }

                                                else {
                                                    if (x[12] <= 0.3216552585363388) {
                                                        if (x[24] <= 0.9895400702953339) {
                                                            if (x[3] <= 0.627740353345871) {
                                                                if (x[26] <= 0.21285073459148407) {
                                                                    votes[8] += 1;
                                                                }

                                                                else {
                                                                    votes[12] += 1;
                                                                }
                                                            }

                                                            else {
                                                                if (x[1] <= 0.09774577245116234) {
                                                                    votes[9] += 1;
                                                                }

                                                                else {
                                                                    votes[8] += 1;
                                                                }
                                                            }
                                                        }

                                                        else {
                                                            if (x[3] <= 0.9193132221698761) {
                                                                votes[9] += 1;
                                                            }

                                                            else {
                                                                votes[6] += 1;
                                                            }
                                                        }
                                                    }

                                                    else {
                                                        if (x[0] <= 1.0181722044944763) {
                                                            if (x[14] <= -0.6264649033546448) {
                                                                votes[5] += 1;
                                                            }

                                                            else {
                                                                votes[7] += 1;
                                                            }
                                                        }

                                                        else {
                                                            if (x[15] <= 2.0502930879592896) {
                                                                votes[0] += 1;
                                                            }

                                                            else {
                                                                votes[6] += 1;
                                                            }
                                                        }
                                                    }
                                                }
                                            }
                                        }

                                        else {
                                            votes[1] += 1;
                                        }
                                    }
                                }

                                else {
                                    if (x[14] <= -1.3736572265625) {
                                        if (x[21] <= 0.3204505145549774) {
                                            votes[6] += 1;
                                        }

                                        else {
                                            votes[1] += 1;
                                        }
                                    }

                                    else {
                                        if (x[15] <= 2.18505859375) {
                                            votes[7] += 1;
                                        }

                                        else {
                                            votes[1] += 1;
                                        }
                                    }
                                }
                            }
                        }

                        else {
                            votes[10] += 1;
                        }

                        // tree #12
                        if (x[30] <= 0.663818359375) {
                            if (x[14] <= -0.271728515625) {
                                if (x[5] <= 0.288406103849411) {
                                    votes[0] += 1;
                                }

                                else {
                                    if (x[22] <= 0.04551229253411293) {
                                        if (x[15] <= 1.0399169921875) {
                                            if (x[15] <= 0.8966064751148224) {
                                                votes[3] += 1;
